digraph Tree {
node [shape=box, fontname="helvetica"] ;
edge [fontname="helvetica"] ;
0 [label="alcohol <= 10.525\nentropy = 1.708\nsamples = 1279\nvalue = [6, 45, 543, 512, 158, 15]"] ;
1 [label="alcohol <= 9.85\nentropy = 1.408\nsamples = 784\nvalue = [5, 30, 460, 257, 30, 2]"] ;
0 -> 1 [labeldistance=2.5, labelangle=45, headlabel="True"] ;
2 [label="total sulfur dioxide <= 95.5\nentropy = 1.198\nsamples = 503\nvalue = [3, 20, 342, 132, 5, 1]"] ;
1 -> 2 ;
3 [label="sulphates <= 0.575\nentropy = 1.283\nsamples = 429\nvalue = [3, 19, 272, 129, 5, 1]"] ;
2 -> 3 ;
4 [label="citric acid <= 0.055\nentropy = 1.182\nsamples = 181\nvalue = [3, 14, 133, 30, 1, 0]"] ;
3 -> 4 ;
5 [label="volatile acidity <= 0.728\nentropy = 1.232\nsamples = 47\nvalue = [2, 7, 35, 2, 1, 0]"] ;
4 -> 5 ;
6 [label="volatile acidity <= 0.595\nentropy = 0.748\nsamples = 31\nvalue = [0, 1, 27, 2, 1, 0]"] ;
5 -> 6 ;
7 [label="sulphates <= 0.475\nentropy = 1.491\nsamples = 11\nvalue = [0, 1, 7, 2, 1, 0]"] ;
6 -> 7 ;
8 [label="entropy = 0.0\nsamples = 7\nvalue = [0, 0, 7, 0, 0, 0]"] ;
7 -> 8 ;
9 [label="chlorides <= 0.073\nentropy = 1.5\nsamples = 4\nvalue = [0, 1, 0, 2, 1, 0]"] ;
7 -> 9 ;
10 [label="free sulfur dioxide <= 13.0\nentropy = 1.0\nsamples = 2\nvalue = [0, 1, 0, 0, 1, 0]"] ;
9 -> 10 ;
11 [label="entropy = 0.0\nsamples = 1\nvalue = [0, 0, 0, 0, 1, 0]"] ;
10 -> 11 ;
12 [label="entropy = 0.0\nsamples = 1\nvalue = [0, 1, 0, 0, 0, 0]"] ;
10 -> 12 ;
13 [label="entropy = 0.0\nsamples = 2\nvalue = [0, 0, 0, 2, 0, 0]"] ;
9 -> 13 ;
14 [label="entropy = 0.0\nsamples = 20\nvalue = [0, 0, 20, 0, 0, 0]"] ;
6 -> 14 ;
15 [label="sulphates <= 0.465\nentropy = 1.406\nsamples = 16\nvalue = [2, 6, 8, 0, 0, 0]"] ;
5 -> 15 ;
16 [label="entropy = 0.0\nsamples = 4\nvalue = [0, 4, 0, 0, 0, 0]"] ;
15 -> 16 ;
17 [label="residual sugar <= 1.95\nentropy = 1.252\nsamples = 12\nvalue = [2, 2, 8, 0, 0, 0]"] ;
15 -> 17 ;
18 [label="free sulfur dioxide <= 11.0\nentropy = 1.5\nsamples = 4\nvalue = [1, 2, 1, 0, 0, 0]"] ;
17 -> 18 ;
19 [label="entropy = 0.0\nsamples = 2\nvalue = [0, 2, 0, 0, 0, 0]"] ;
18 -> 19 ;
20 [label="sulphates <= 0.53\nentropy = 1.0\nsamples = 2\nvalue = [1, 0, 1, 0, 0, 0]"] ;
18 -> 20 ;
21 [label="entropy = 0.0\nsamples = 1\nvalue = [1, 0, 0, 0, 0, 0]"] ;
20 -> 21 ;
22 [label="entropy = 0.0\nsamples = 1\nvalue = [0, 0, 1, 0, 0, 0]"] ;
20 -> 22 ;
23 [label="volatile acidity <= 0.965\nentropy = 0.544\nsamples = 8\nvalue = [1, 0, 7, 0, 0, 0]"] ;
17 -> 23 ;
24 [label="entropy = 0.0\nsamples = 7\nvalue = [0, 0, 7, 0, 0, 0]"] ;
23 -> 24 ;
25 [label="entropy = 0.0\nsamples = 1\nvalue = [1, 0, 0, 0, 0, 0]"] ;
23 -> 25 ;
26 [label="chlorides <= 0.08\nentropy = 1.077\nsamples = 134\nvalue = [1, 7, 98, 28, 0, 0]"] ;
4 -> 26 ;
27 [label="fixed acidity <= 10.05\nentropy = 1.215\nsamples = 64\nvalue = [1, 2, 39, 22, 0, 0]"] ;
26 -> 27 ;
28 [label="density <= 0.997\nentropy = 0.935\nsamples = 57\nvalue = [0, 0, 37, 20, 0, 0]"] ;
27 -> 28 ;
29 [label="fixed acidity <= 7.65\nentropy = 0.996\nsamples = 41\nvalue = [0, 0, 22, 19, 0, 0]"] ;
28 -> 29 ;
30 [label="pH <= 3.4\nentropy = 0.702\nsamples = 21\nvalue = [0, 0, 17, 4, 0, 0]"] ;
29 -> 30 ;
31 [label="chlorides <= 0.069\nentropy = 0.323\nsamples = 17\nvalue = [0, 0, 16, 1, 0, 0]"] ;
30 -> 31 ;
32 [label="volatile acidity <= 0.505\nentropy = 0.918\nsamples = 3\nvalue = [0, 0, 2, 1, 0, 0]"] ;
31 -> 32 ;
33 [label="entropy = 0.0\nsamples = 1\nvalue = [0, 0, 0, 1, 0, 0]"] ;
32 -> 33 ;
34 [label="entropy = 0.0\nsamples = 2\nvalue = [0, 0, 2, 0, 0, 0]"] ;
32 -> 34 ;
35 [label="entropy = 0.0\nsamples = 14\nvalue = [0, 0, 14, 0, 0, 0]"] ;
31 -> 35 ;
36 [label="fixed acidity <= 6.45\nentropy = 0.811\nsamples = 4\nvalue = [0, 0, 1, 3, 0, 0]"] ;
30 -> 36 ;
37 [label="entropy = 0.0\nsamples = 1\nvalue = [0, 0, 1, 0, 0, 0]"] ;
36 -> 37 ;
38 [label="entropy = 0.0\nsamples = 3\nvalue = [0, 0, 0, 3, 0, 0]"] ;
36 -> 38 ;
39 [label="alcohol <= 9.55\nentropy = 0.811\nsamples = 20\nvalue = [0, 0, 5, 15, 0, 0]"] ;
29 -> 39 ;
40 [label="pH <= 3.31\nentropy = 0.98\nsamples = 12\nvalue = [0, 0, 5, 7, 0, 0]"] ;
39 -> 40 ;
41 [label="density <= 0.997\nentropy = 0.954\nsamples = 8\nvalue = [0, 0, 5, 3, 0, 0]"] ;
40 -> 41 ;
42 [label="volatile acidity <= 0.825\nentropy = 0.65\nsamples = 6\nvalue = [0, 0, 5, 1, 0, 0]"] ;
41 -> 42 ;
43 [label="entropy = 0.0\nsamples = 5\nvalue = [0, 0, 5, 0, 0, 0]"] ;
42 -> 43 ;
44 [label="entropy = 0.0\nsamples = 1\nvalue = [0, 0, 0, 1, 0, 0]"] ;
42 -> 44 ;
45 [label="entropy = 0.0\nsamples = 2\nvalue = [0, 0, 0, 2, 0, 0]"] ;
41 -> 45 ;
46 [label="entropy = 0.0\nsamples = 4\nvalue = [0, 0, 0, 4, 0, 0]"] ;
40 -> 46 ;
47 [label="entropy = 0.0\nsamples = 8\nvalue = [0, 0, 0, 8, 0, 0]"] ;
39 -> 47 ;
48 [label="residual sugar <= 9.25\nentropy = 0.337\nsamples = 16\nvalue = [0, 0, 15, 1, 0, 0]"] ;
28 -> 48 ;
49 [label="entropy = 0.0\nsamples = 15\nvalue = [0, 0, 15, 0, 0, 0]"] ;
48 -> 49 ;
50 [label="entropy = 0.0\nsamples = 1\nvalue = [0, 0, 0, 1, 0, 0]"] ;
48 -> 50 ;
51 [label="free sulfur dioxide <= 11.0\nentropy = 1.95\nsamples = 7\nvalue = [1, 2, 2, 2, 0, 0]"] ;
27 -> 51 ;
52 [label="entropy = 0.0\nsamples = 1\nvalue = [1, 0, 0, 0, 0, 0]"] ;
51 -> 52 ;
53 [label="sulphates <= 0.565\nentropy = 1.585\nsamples = 6\nvalue = [0, 2, 2, 2, 0, 0]"] ;
51 -> 53 ;
54 [label="chlorides <= 0.058\nentropy = 1.522\nsamples = 5\nvalue = [0, 1, 2, 2, 0, 0]"] ;
53 -> 54 ;
55 [label="entropy = 0.0\nsamples = 1\nvalue = [0, 1, 0, 0, 0, 0]"] ;
54 -> 55 ;
56 [label="chlorides <= 0.061\nentropy = 1.0\nsamples = 4\nvalue = [0, 0, 2, 2, 0, 0]"] ;
54 -> 56 ;
57 [label="entropy = 0.0\nsamples = 1\nvalue = [0, 0, 1, 0, 0, 0]"] ;
56 -> 57 ;
58 [label="residual sugar <= 2.05\nentropy = 0.918\nsamples = 3\nvalue = [0, 0, 1, 2, 0, 0]"] ;
56 -> 58 ;
59 [label="entropy = 0.0\nsamples = 1\nvalue = [0, 0, 1, 0, 0, 0]"] ;
58 -> 59 ;
60 [label="entropy = 0.0\nsamples = 2\nvalue = [0, 0, 0, 2, 0, 0]"] ;
58 -> 60 ;
61 [label="entropy = 0.0\nsamples = 1\nvalue = [0, 1, 0, 0, 0, 0]"] ;
53 -> 61 ;
62 [label="pH <= 3.255\nentropy = 0.784\nsamples = 70\nvalue = [0, 5, 59, 6, 0, 0]"] ;
26 -> 62 ;
63 [label="entropy = 0.0\nsamples = 31\nvalue = [0, 0, 31, 0, 0, 0]"] ;
62 -> 63 ;
64 [label="sulphates <= 0.535\nentropy = 1.139\nsamples = 39\nvalue = [0, 5, 28, 6, 0, 0]"] ;
62 -> 64 ;
65 [label="alcohol <= 9.35\nentropy = 1.076\nsamples = 20\nvalue = [0, 5, 14, 1, 0, 0]"] ;
64 -> 65 ;
66 [label="chlorides <= 0.093\nentropy = 0.918\nsamples = 6\nvalue = [0, 4, 2, 0, 0, 0]"] ;
65 -> 66 ;
67 [label="entropy = 0.0\nsamples = 4\nvalue = [0, 4, 0, 0, 0, 0]"] ;
66 -> 67 ;
68 [label="entropy = 0.0\nsamples = 2\nvalue = [0, 0, 2, 0, 0, 0]"] ;
66 -> 68 ;
69 [label="alcohol <= 9.75\nentropy = 0.735\nsamples = 14\nvalue = [0, 1, 12, 1, 0, 0]"] ;
65 -> 69 ;
70 [label="free sulfur dioxide <= 8.0\nentropy = 0.391\nsamples = 13\nvalue = [0, 0, 12, 1, 0, 0]"] ;
69 -> 70 ;
71 [label="alcohol <= 9.45\nentropy = 0.918\nsamples = 3\nvalue = [0, 0, 2, 1, 0, 0]"] ;
70 -> 71 ;
72 [label="entropy = 0.0\nsamples = 1\nvalue = [0, 0, 0, 1, 0, 0]"] ;
71 -> 72 ;
73 [label="entropy = 0.0\nsamples = 2\nvalue = [0, 0, 2, 0, 0, 0]"] ;
71 -> 73 ;
74 [label="entropy = 0.0\nsamples = 10\nvalue = [0, 0, 10, 0, 0, 0]"] ;
70 -> 74 ;
75 [label="entropy = 0.0\nsamples = 1\nvalue = [0, 1, 0, 0, 0, 0]"] ;
69 -> 75 ;
76 [label="total sulfur dioxide <= 82.0\nentropy = 0.831\nsamples = 19\nvalue = [0, 0, 14, 5, 0, 0]"] ;
64 -> 76 ;
77 [label="volatile acidity <= 0.665\nentropy = 0.567\nsamples = 15\nvalue = [0, 0, 13, 2, 0, 0]"] ;
76 -> 77 ;
78 [label="residual sugar <= 1.7\nentropy = 0.371\nsamples = 14\nvalue = [0, 0, 13, 1, 0, 0]"] ;
77 -> 78 ;
79 [label="density <= 0.996\nentropy = 0.918\nsamples = 3\nvalue = [0, 0, 2, 1, 0, 0]"] ;
78 -> 79 ;
80 [label="entropy = 0.0\nsamples = 2\nvalue = [0, 0, 2, 0, 0, 0]"] ;
79 -> 80 ;
81 [label="entropy = 0.0\nsamples = 1\nvalue = [0, 0, 0, 1, 0, 0]"] ;
79 -> 81 ;
82 [label="entropy = 0.0\nsamples = 11\nvalue = [0, 0, 11, 0, 0, 0]"] ;
78 -> 82 ;
83 [label="entropy = 0.0\nsamples = 1\nvalue = [0, 0, 0, 1, 0, 0]"] ;
77 -> 83 ;
84 [label="free sulfur dioxide <= 14.5\nentropy = 0.811\nsamples = 4\nvalue = [0, 0, 1, 3, 0, 0]"] ;
76 -> 84 ;
85 [label="entropy = 0.0\nsamples = 1\nvalue = [0, 0, 1, 0, 0, 0]"] ;
84 -> 85 ;
86 [label="entropy = 0.0\nsamples = 3\nvalue = [0, 0, 0, 3, 0, 0]"] ;
84 -> 86 ;
87 [label="fixed acidity <= 10.85\nentropy = 1.239\nsamples = 248\nvalue = [0, 5, 139, 99, 4, 1]"] ;
3 -> 87 ;
88 [label="volatile acidity <= 0.655\nentropy = 1.153\nsamples = 230\nvalue = [0, 5, 138, 85, 2, 0]"] ;
87 -> 88 ;
89 [label="citric acid <= 0.535\nentropy = 1.094\nsamples = 190\nvalue = [0, 1, 110, 77, 2, 0]"] ;
88 -> 89 ;
90 [label="total sulfur dioxide <= 28.5\nentropy = 1.069\nsamples = 174\nvalue = [0, 0, 96, 76, 2, 0]"] ;
89 -> 90 ;
91 [label="total sulfur dioxide <= 23.5\nentropy = 0.967\nsamples = 56\nvalue = [0, 0, 22, 34, 0, 0]"] ;
90 -> 91 ;
92 [label="volatile acidity <= 0.54\nentropy = 0.991\nsamples = 36\nvalue = [0, 0, 20, 16, 0, 0]"] ;
91 -> 92 ;
93 [label="residual sugar <= 1.65\nentropy = 0.946\nsamples = 22\nvalue = [0, 0, 8, 14, 0, 0]"] ;
92 -> 93 ;
94 [label="entropy = 0.0\nsamples = 5\nvalue = [0, 0, 0, 5, 0, 0]"] ;
93 -> 94 ;
95 [label="volatile acidity <= 0.395\nentropy = 0.998\nsamples = 17\nvalue = [0, 0, 8, 9, 0, 0]"] ;
93 -> 95 ;
96 [label="entropy = 0.0\nsamples = 5\nvalue = [0, 0, 5, 0, 0, 0]"] ;
95 -> 96 ;
97 [label="free sulfur dioxide <= 4.5\nentropy = 0.811\nsamples = 12\nvalue = [0, 0, 3, 9, 0, 0]"] ;
95 -> 97 ;
98 [label="entropy = 0.0\nsamples = 2\nvalue = [0, 0, 2, 0, 0, 0]"] ;
97 -> 98 ;
99 [label="chlorides <= 0.065\nentropy = 0.469\nsamples = 10\nvalue = [0, 0, 1, 9, 0, 0]"] ;
97 -> 99 ;
100 [label="entropy = 0.0\nsamples = 1\nvalue = [0, 0, 1, 0, 0, 0]"] ;
99 -> 100 ;
101 [label="entropy = 0.0\nsamples = 9\nvalue = [0, 0, 0, 9, 0, 0]"] ;
99 -> 101 ;
102 [label="volatile acidity <= 0.63\nentropy = 0.592\nsamples = 14\nvalue = [0, 0, 12, 2, 0, 0]"] ;
92 -> 102 ;
103 [label="entropy = 0.0\nsamples = 10\nvalue = [0, 0, 10, 0, 0, 0]"] ;
102 -> 103 ;
104 [label="residual sugar <= 1.9\nentropy = 1.0\nsamples = 4\nvalue = [0, 0, 2, 2, 0, 0]"] ;
102 -> 104 ;
105 [label="entropy = 0.0\nsamples = 2\nvalue = [0, 0, 2, 0, 0, 0]"] ;
104 -> 105 ;
106 [label="entropy = 0.0\nsamples = 2\nvalue = [0, 0, 0, 2, 0, 0]"] ;
104 -> 106 ;
107 [label="density <= 1.0\nentropy = 0.469\nsamples = 20\nvalue = [0, 0, 2, 18, 0, 0]"] ;
91 -> 107 ;
108 [label="entropy = 0.0\nsamples = 18\nvalue = [0, 0, 0, 18, 0, 0]"] ;
107 -> 108 ;
109 [label="entropy = 0.0\nsamples = 2\nvalue = [0, 0, 2, 0, 0, 0]"] ;
107 -> 109 ;
110 [label="residual sugar <= 1.65\nentropy = 1.052\nsamples = 118\nvalue = [0, 0, 74, 42, 2, 0]"] ;
90 -> 110 ;
111 [label="entropy = 0.0\nsamples = 16\nvalue = [0, 0, 16, 0, 0, 0]"] ;
110 -> 111 ;
112 [label="pH <= 3.535\nentropy = 1.101\nsamples = 102\nvalue = [0, 0, 58, 42, 2, 0]"] ;
110 -> 112 ;
113 [label="fixed acidity <= 8.75\nentropy = 1.122\nsamples = 94\nvalue = [0, 0, 50, 42, 2, 0]"] ;
112 -> 113 ;
114 [label="chlorides <= 0.078\nentropy = 1.088\nsamples = 68\nvalue = [0, 0, 30, 37, 1, 0]"] ;
113 -> 114 ;
115 [label="pH <= 3.255\nentropy = 1.099\nsamples = 24\nvalue = [0, 0, 16, 7, 1, 0]"] ;
114 -> 115 ;
116 [label="citric acid <= 0.255\nentropy = 0.918\nsamples = 3\nvalue = [0, 0, 0, 2, 1, 0]"] ;
115 -> 116 ;
117 [label="entropy = 0.0\nsamples = 2\nvalue = [0, 0, 0, 2, 0, 0]"] ;
116 -> 117 ;
118 [label="entropy = 0.0\nsamples = 1\nvalue = [0, 0, 0, 0, 1, 0]"] ;
116 -> 118 ;
119 [label="fixed acidity <= 7.3\nentropy = 0.792\nsamples = 21\nvalue = [0, 0, 16, 5, 0, 0]"] ;
115 -> 119 ;
120 [label="total sulfur dioxide <= 39.0\nentropy = 0.994\nsamples = 11\nvalue = [0, 0, 6, 5, 0, 0]"] ;
119 -> 120 ;
121 [label="density <= 0.996\nentropy = 0.722\nsamples = 5\nvalue = [0, 0, 1, 4, 0, 0]"] ;
120 -> 121 ;
122 [label="entropy = 0.0\nsamples = 1\nvalue = [0, 0, 1, 0, 0, 0]"] ;
121 -> 122 ;
123 [label="entropy = 0.0\nsamples = 4\nvalue = [0, 0, 0, 4, 0, 0]"] ;
121 -> 123 ;
124 [label="sulphates <= 0.595\nentropy = 0.65\nsamples = 6\nvalue = [0, 0, 5, 1, 0, 0]"] ;
120 -> 124 ;
125 [label="entropy = 0.0\nsamples = 1\nvalue = [0, 0, 0, 1, 0, 0]"] ;
124 -> 125 ;
126 [label="entropy = 0.0\nsamples = 5\nvalue = [0, 0, 5, 0, 0, 0]"] ;
124 -> 126 ;
127 [label="entropy = 0.0\nsamples = 10\nvalue = [0, 0, 10, 0, 0, 0]"] ;
119 -> 127 ;
128 [label="chlorides <= 0.099\nentropy = 0.902\nsamples = 44\nvalue = [0, 0, 14, 30, 0, 0]"] ;
114 -> 128 ;
129 [label="pH <= 3.355\nentropy = 0.764\nsamples = 36\nvalue = [0, 0, 8, 28, 0, 0]"] ;
128 -> 129 ;
130 [label="entropy = 0.0\nsamples = 13\nvalue = [0, 0, 0, 13, 0, 0]"] ;
129 -> 130 ;
131 [label="sulphates <= 0.605\nentropy = 0.932\nsamples = 23\nvalue = [0, 0, 8, 15, 0, 0]"] ;
129 -> 131 ;
132 [label="entropy = 0.0\nsamples = 6\nvalue = [0, 0, 0, 6, 0, 0]"] ;
131 -> 132 ;
133 [label="pH <= 3.405\nentropy = 0.998\nsamples = 17\nvalue = [0, 0, 8, 9, 0, 0]"] ;
131 -> 133 ;
134 [label="volatile acidity <= 0.435\nentropy = 0.65\nsamples = 6\nvalue = [0, 0, 5, 1, 0, 0]"] ;
133 -> 134 ;
135 [label="entropy = 0.0\nsamples = 1\nvalue = [0, 0, 0, 1, 0, 0]"] ;
134 -> 135 ;
136 [label="entropy = 0.0\nsamples = 5\nvalue = [0, 0, 5, 0, 0, 0]"] ;
134 -> 136 ;
137 [label="citric acid <= 0.305\nentropy = 0.845\nsamples = 11\nvalue = [0, 0, 3, 8, 0, 0]"] ;
133 -> 137 ;
138 [label="entropy = 0.0\nsamples = 7\nvalue = [0, 0, 0, 7, 0, 0]"] ;
137 -> 138 ;
139 [label="free sulfur dioxide <= 24.5\nentropy = 0.811\nsamples = 4\nvalue = [0, 0, 3, 1, 0, 0]"] ;
137 -> 139 ;
140 [label="entropy = 0.0\nsamples = 3\nvalue = [0, 0, 3, 0, 0, 0]"] ;
139 -> 140 ;
141 [label="entropy = 0.0\nsamples = 1\nvalue = [0, 0, 0, 1, 0, 0]"] ;
139 -> 141 ;
142 [label="total sulfur dioxide <= 60.0\nentropy = 0.811\nsamples = 8\nvalue = [0, 0, 6, 2, 0, 0]"] ;
128 -> 142 ;
143 [label="density <= 0.997\nentropy = 1.0\nsamples = 4\nvalue = [0, 0, 2, 2, 0, 0]"] ;
142 -> 143 ;
144 [label="entropy = 0.0\nsamples = 2\nvalue = [0, 0, 2, 0, 0, 0]"] ;
143 -> 144 ;
145 [label="entropy = 0.0\nsamples = 2\nvalue = [0, 0, 0, 2, 0, 0]"] ;
143 -> 145 ;
146 [label="entropy = 0.0\nsamples = 4\nvalue = [0, 0, 4, 0, 0, 0]"] ;
142 -> 146 ;
147 [label="fixed acidity <= 9.95\nentropy = 0.929\nsamples = 26\nvalue = [0, 0, 20, 5, 1, 0]"] ;
113 -> 147 ;
148 [label="total sulfur dioxide <= 84.0\nentropy = 0.53\nsamples = 22\nvalue = [0, 0, 20, 1, 1, 0]"] ;
147 -> 148 ;
149 [label="free sulfur dioxide <= 11.5\nentropy = 0.286\nsamples = 20\nvalue = [0, 0, 19, 0, 1, 0]"] ;
148 -> 149 ;
150 [label="fixed acidity <= 9.35\nentropy = 0.811\nsamples = 4\nvalue = [0, 0, 3, 0, 1, 0]"] ;
149 -> 150 ;
151 [label="entropy = 0.0\nsamples = 3\nvalue = [0, 0, 3, 0, 0, 0]"] ;
150 -> 151 ;
152 [label="entropy = 0.0\nsamples = 1\nvalue = [0, 0, 0, 0, 1, 0]"] ;
150 -> 152 ;
153 [label="entropy = 0.0\nsamples = 16\nvalue = [0, 0, 16, 0, 0, 0]"] ;
149 -> 153 ;
154 [label="fixed acidity <= 9.15\nentropy = 1.0\nsamples = 2\nvalue = [0, 0, 1, 1, 0, 0]"] ;
148 -> 154 ;
155 [label="entropy = 0.0\nsamples = 1\nvalue = [0, 0, 0, 1, 0, 0]"] ;
154 -> 155 ;
156 [label="entropy = 0.0\nsamples = 1\nvalue = [0, 0, 1, 0, 0, 0]"] ;
154 -> 156 ;
157 [label="entropy = 0.0\nsamples = 4\nvalue = [0, 0, 0, 4, 0, 0]"] ;
147 -> 157 ;
158 [label="entropy = 0.0\nsamples = 8\nvalue = [0, 0, 8, 0, 0, 0]"] ;
112 -> 158 ;
159 [label="citric acid <= 0.88\nentropy = 0.669\nsamples = 16\nvalue = [0, 1, 14, 1, 0, 0]"] ;
89 -> 159 ;
160 [label="alcohol <= 9.15\nentropy = 0.353\nsamples = 15\nvalue = [0, 0, 14, 1, 0, 0]"] ;
159 -> 160 ;
161 [label="citric acid <= 0.645\nentropy = 1.0\nsamples = 2\nvalue = [0, 0, 1, 1, 0, 0]"] ;
160 -> 161 ;
162 [label="entropy = 0.0\nsamples = 1\nvalue = [0, 0, 1, 0, 0, 0]"] ;
161 -> 162 ;
163 [label="entropy = 0.0\nsamples = 1\nvalue = [0, 0, 0, 1, 0, 0]"] ;
161 -> 163 ;
164 [label="entropy = 0.0\nsamples = 13\nvalue = [0, 0, 13, 0, 0, 0]"] ;
160 -> 164 ;
165 [label="entropy = 0.0\nsamples = 1\nvalue = [0, 1, 0, 0, 0, 0]"] ;
159 -> 165 ;
166 [label="density <= 0.999\nentropy = 1.157\nsamples = 40\nvalue = [0, 4, 28, 8, 0, 0]"] ;
88 -> 166 ;
167 [label="citric acid <= 0.075\nentropy = 0.976\nsamples = 36\nvalue = [0, 3, 28, 5, 0, 0]"] ;
166 -> 167 ;
168 [label="pH <= 3.185\nentropy = 0.544\nsamples = 16\nvalue = [0, 2, 14, 0, 0, 0]"] ;
167 -> 168 ;
169 [label="entropy = 0.0\nsamples = 1\nvalue = [0, 1, 0, 0, 0, 0]"] ;
168 -> 169 ;
170 [label="volatile acidity <= 0.928\nentropy = 0.353\nsamples = 15\nvalue = [0, 1, 14, 0, 0, 0]"] ;
168 -> 170 ;
171 [label="entropy = 0.0\nsamples = 14\nvalue = [0, 0, 14, 0, 0, 0]"] ;
170 -> 171 ;
172 [label="entropy = 0.0\nsamples = 1\nvalue = [0, 1, 0, 0, 0, 0]"] ;
170 -> 172 ;
173 [label="total sulfur dioxide <= 65.5\nentropy = 1.076\nsamples = 20\nvalue = [0, 1, 14, 5, 0, 0]"] ;
167 -> 173 ;
174 [label="total sulfur dioxide <= 63.5\nentropy = 0.961\nsamples = 13\nvalue = [0, 0, 8, 5, 0, 0]"] ;
173 -> 174 ;
175 [label="citric acid <= 0.105\nentropy = 0.722\nsamples = 10\nvalue = [0, 0, 8, 2, 0, 0]"] ;
174 -> 175 ;
176 [label="fixed acidity <= 8.65\nentropy = 0.918\nsamples = 3\nvalue = [0, 0, 1, 2, 0, 0]"] ;
175 -> 176 ;
177 [label="entropy = 0.0\nsamples = 2\nvalue = [0, 0, 0, 2, 0, 0]"] ;
176 -> 177 ;
178 [label="entropy = 0.0\nsamples = 1\nvalue = [0, 0, 1, 0, 0, 0]"] ;
176 -> 178 ;
179 [label="entropy = 0.0\nsamples = 7\nvalue = [0, 0, 7, 0, 0, 0]"] ;
175 -> 179 ;
180 [label="entropy = 0.0\nsamples = 3\nvalue = [0, 0, 0, 3, 0, 0]"] ;
174 -> 180 ;
181 [label="volatile acidity <= 0.678\nentropy = 0.592\nsamples = 7\nvalue = [0, 1, 6, 0, 0, 0]"] ;
173 -> 181 ;
182 [label="entropy = 0.0\nsamples = 1\nvalue = [0, 1, 0, 0, 0, 0]"] ;
181 -> 182 ;
183 [label="entropy = 0.0\nsamples = 6\nvalue = [0, 0, 6, 0, 0, 0]"] ;
181 -> 183 ;
184 [label="volatile acidity <= 0.833\nentropy = 0.811\nsamples = 4\nvalue = [0, 1, 0, 3, 0, 0]"] ;
166 -> 184 ;
185 [label="entropy = 0.0\nsamples = 3\nvalue = [0, 0, 0, 3, 0, 0]"] ;
184 -> 185 ;
186 [label="entropy = 0.0\nsamples = 1\nvalue = [0, 1, 0, 0, 0, 0]"] ;
184 -> 186 ;
187 [label="fixed acidity <= 14.65\nentropy = 1.098\nsamples = 18\nvalue = [0, 0, 1, 14, 2, 1]"] ;
87 -> 187 ;
188 [label="citric acid <= 0.425\nentropy = 0.669\nsamples = 16\nvalue = [0, 0, 1, 14, 0, 1]"] ;
187 -> 188 ;
189 [label="entropy = 0.0\nsamples = 1\nvalue = [0, 0, 1, 0, 0, 0]"] ;
188 -> 189 ;
190 [label="pH <= 2.91\nentropy = 0.353\nsamples = 15\nvalue = [0, 0, 0, 14, 0, 1]"] ;
188 -> 190 ;
191 [label="alcohol <= 9.1\nentropy = 1.0\nsamples = 2\nvalue = [0, 0, 0, 1, 0, 1]"] ;
190 -> 191 ;
192 [label="entropy = 0.0\nsamples = 1\nvalue = [0, 0, 0, 1, 0, 0]"] ;
191 -> 192 ;
193 [label="entropy = 0.0\nsamples = 1\nvalue = [0, 0, 0, 0, 0, 1]"] ;
191 -> 193 ;
194 [label="entropy = 0.0\nsamples = 13\nvalue = [0, 0, 0, 13, 0, 0]"] ;
190 -> 194 ;
195 [label="entropy = 0.0\nsamples = 2\nvalue = [0, 0, 0, 0, 2, 0]"] ;
187 -> 195 ;
196 [label="residual sugar <= 1.55\nentropy = 0.347\nsamples = 74\nvalue = [0, 1, 70, 3, 0, 0]"] ;
2 -> 196 ;
197 [label="volatile acidity <= 0.468\nentropy = 1.0\nsamples = 2\nvalue = [0, 1, 1, 0, 0, 0]"] ;
196 -> 197 ;
198 [label="entropy = 0.0\nsamples = 1\nvalue = [0, 0, 1, 0, 0, 0]"] ;
197 -> 198 ;
199 [label="entropy = 0.0\nsamples = 1\nvalue = [0, 1, 0, 0, 0, 0]"] ;
197 -> 199 ;
200 [label="density <= 0.996\nentropy = 0.25\nsamples = 72\nvalue = [0, 0, 69, 3, 0, 0]"] ;
196 -> 200 ;
201 [label="volatile acidity <= 0.515\nentropy = 0.918\nsamples = 6\nvalue = [0, 0, 4, 2, 0, 0]"] ;
200 -> 201 ;
202 [label="entropy = 0.0\nsamples = 4\nvalue = [0, 0, 4, 0, 0, 0]"] ;
201 -> 202 ;
203 [label="entropy = 0.0\nsamples = 2\nvalue = [0, 0, 0, 2, 0, 0]"] ;
201 -> 203 ;
204 [label="chlorides <= 0.067\nentropy = 0.113\nsamples = 66\nvalue = [0, 0, 65, 1, 0, 0]"] ;
200 -> 204 ;
205 [label="pH <= 3.08\nentropy = 1.0\nsamples = 2\nvalue = [0, 0, 1, 1, 0, 0]"] ;
204 -> 205 ;
206 [label="entropy = 0.0\nsamples = 1\nvalue = [0, 0, 1, 0, 0, 0]"] ;
205 -> 206 ;
207 [label="entropy = 0.0\nsamples = 1\nvalue = [0, 0, 0, 1, 0, 0]"] ;
205 -> 207 ;
208 [label="entropy = 0.0\nsamples = 64\nvalue = [0, 0, 64, 0, 0, 0]"] ;
204 -> 208 ;
209 [label="total sulfur dioxide <= 80.0\nentropy = 1.607\nsamples = 281\nvalue = [2, 10, 118, 125, 25, 1]"] ;
1 -> 209 ;
210 [label="sulphates <= 0.635\nentropy = 1.636\nsamples = 244\nvalue = [2, 9, 87, 120, 25, 1]"] ;
209 -> 210 ;
211 [label="free sulfur dioxide <= 7.5\nentropy = 1.5\nsamples = 127\nvalue = [1, 8, 59, 55, 4, 0]"] ;
210 -> 211 ;
212 [label="density <= 0.998\nentropy = 1.498\nsamples = 39\nvalue = [1, 7, 23, 8, 0, 0]"] ;
211 -> 212 ;
213 [label="volatile acidity <= 0.49\nentropy = 1.464\nsamples = 32\nvalue = [0, 7, 17, 8, 0, 0]"] ;
212 -> 213 ;
214 [label="total sulfur dioxide <= 15.5\nentropy = 0.845\nsamples = 11\nvalue = [0, 0, 8, 3, 0, 0]"] ;
213 -> 214 ;
215 [label="residual sugar <= 1.65\nentropy = 0.971\nsamples = 5\nvalue = [0, 0, 2, 3, 0, 0]"] ;
214 -> 215 ;
216 [label="entropy = 0.0\nsamples = 2\nvalue = [0, 0, 2, 0, 0, 0]"] ;
215 -> 216 ;
217 [label="entropy = 0.0\nsamples = 3\nvalue = [0, 0, 0, 3, 0, 0]"] ;
215 -> 217 ;
218 [label="entropy = 0.0\nsamples = 6\nvalue = [0, 0, 6, 0, 0, 0]"] ;
214 -> 218 ;
219 [label="total sulfur dioxide <= 17.5\nentropy = 1.545\nsamples = 21\nvalue = [0, 7, 9, 5, 0, 0]"] ;
213 -> 219 ;
220 [label="fixed acidity <= 6.8\nentropy = 1.0\nsamples = 10\nvalue = [0, 5, 5, 0, 0, 0]"] ;
219 -> 220 ;
221 [label="entropy = 0.0\nsamples = 3\nvalue = [0, 3, 0, 0, 0, 0]"] ;
220 -> 221 ;
222 [label="volatile acidity <= 0.585\nentropy = 0.863\nsamples = 7\nvalue = [0, 2, 5, 0, 0, 0]"] ;
220 -> 222 ;
223 [label="entropy = 0.0\nsamples = 2\nvalue = [0, 2, 0, 0, 0, 0]"] ;
222 -> 223 ;
224 [label="entropy = 0.0\nsamples = 5\nvalue = [0, 0, 5, 0, 0, 0]"] ;
222 -> 224 ;
225 [label="citric acid <= 0.255\nentropy = 1.495\nsamples = 11\nvalue = [0, 2, 4, 5, 0, 0]"] ;
219 -> 225 ;
226 [label="volatile acidity <= 0.545\nentropy = 1.0\nsamples = 8\nvalue = [0, 0, 4, 4, 0, 0]"] ;
225 -> 226 ;
227 [label="entropy = 0.0\nsamples = 2\nvalue = [0, 0, 0, 2, 0, 0]"] ;
226 -> 227 ;
228 [label="alcohol <= 10.25\nentropy = 0.918\nsamples = 6\nvalue = [0, 0, 4, 2, 0, 0]"] ;
226 -> 228 ;
229 [label="entropy = 0.0\nsamples = 4\nvalue = [0, 0, 4, 0, 0, 0]"] ;
228 -> 229 ;
230 [label="entropy = 0.0\nsamples = 2\nvalue = [0, 0, 0, 2, 0, 0]"] ;
228 -> 230 ;
231 [label="sulphates <= 0.615\nentropy = 0.918\nsamples = 3\nvalue = [0, 2, 0, 1, 0, 0]"] ;
225 -> 231 ;
232 [label="entropy = 0.0\nsamples = 2\nvalue = [0, 2, 0, 0, 0, 0]"] ;
231 -> 232 ;
233 [label="entropy = 0.0\nsamples = 1\nvalue = [0, 0, 0, 1, 0, 0]"] ;
231 -> 233 ;
234 [label="density <= 0.998\nentropy = 0.592\nsamples = 7\nvalue = [1, 0, 6, 0, 0, 0]"] ;
212 -> 234 ;
235 [label="entropy = 0.0\nsamples = 1\nvalue = [1, 0, 0, 0, 0, 0]"] ;
234 -> 235 ;
236 [label="entropy = 0.0\nsamples = 6\nvalue = [0, 0, 6, 0, 0, 0]"] ;
234 -> 236 ;
237 [label="sulphates <= 0.485\nentropy = 1.287\nsamples = 88\nvalue = [0, 1, 36, 47, 4, 0]"] ;
211 -> 237 ;
238 [label="residual sugar <= 1.45\nentropy = 0.439\nsamples = 11\nvalue = [0, 0, 10, 0, 1, 0]"] ;
237 -> 238 ;
239 [label="entropy = 0.0\nsamples = 1\nvalue = [0, 0, 0, 0, 1, 0]"] ;
238 -> 239 ;
240 [label="entropy = 0.0\nsamples = 10\nvalue = [0, 0, 10, 0, 0, 0]"] ;
238 -> 240 ;
241 [label="total sulfur dioxide <= 18.5\nentropy = 1.227\nsamples = 77\nvalue = [0, 1, 26, 47, 3, 0]"] ;
237 -> 241 ;
242 [label="density <= 0.995\nentropy = 0.918\nsamples = 3\nvalue = [0, 0, 0, 1, 2, 0]"] ;
241 -> 242 ;
243 [label="entropy = 0.0\nsamples = 1\nvalue = [0, 0, 0, 1, 0, 0]"] ;
242 -> 243 ;
244 [label="entropy = 0.0\nsamples = 2\nvalue = [0, 0, 0, 0, 2, 0]"] ;
242 -> 244 ;
245 [label="pH <= 3.425\nentropy = 1.124\nsamples = 74\nvalue = [0, 1, 26, 46, 1, 0]"] ;
241 -> 245 ;
246 [label="chlorides <= 0.097\nentropy = 0.895\nsamples = 61\nvalue = [0, 0, 19, 42, 0, 0]"] ;
245 -> 246 ;
247 [label="density <= 0.998\nentropy = 0.85\nsamples = 58\nvalue = [0, 0, 16, 42, 0, 0]"] ;
246 -> 247 ;
248 [label="volatile acidity <= 0.778\nentropy = 0.918\nsamples = 48\nvalue = [0, 0, 16, 32, 0, 0]"] ;
247 -> 248 ;
249 [label="sulphates <= 0.535\nentropy = 0.867\nsamples = 45\nvalue = [0, 0, 13, 32, 0, 0]"] ;
248 -> 249 ;
250 [label="entropy = 0.0\nsamples = 7\nvalue = [0, 0, 0, 7, 0, 0]"] ;
249 -> 250 ;
251 [label="free sulfur dioxide <= 12.5\nentropy = 0.927\nsamples = 38\nvalue = [0, 0, 13, 25, 0, 0]"] ;
249 -> 251 ;
252 [label="citric acid <= 0.225\nentropy = 0.881\nsamples = 10\nvalue = [0, 0, 7, 3, 0, 0]"] ;
251 -> 252 ;
253 [label="entropy = 0.0\nsamples = 6\nvalue = [0, 0, 6, 0, 0, 0]"] ;
252 -> 253 ;
254 [label="alcohol <= 10.45\nentropy = 0.811\nsamples = 4\nvalue = [0, 0, 1, 3, 0, 0]"] ;
252 -> 254 ;
255 [label="entropy = 0.0\nsamples = 3\nvalue = [0, 0, 0, 3, 0, 0]"] ;
254 -> 255 ;
256 [label="entropy = 0.0\nsamples = 1\nvalue = [0, 0, 1, 0, 0, 0]"] ;
254 -> 256 ;
257 [label="total sulfur dioxide <= 44.0\nentropy = 0.75\nsamples = 28\nvalue = [0, 0, 6, 22, 0, 0]"] ;
251 -> 257 ;
258 [label="entropy = 0.0\nsamples = 12\nvalue = [0, 0, 0, 12, 0, 0]"] ;
257 -> 258 ;
259 [label="total sulfur dioxide <= 50.0\nentropy = 0.954\nsamples = 16\nvalue = [0, 0, 6, 10, 0, 0]"] ;
257 -> 259 ;
260 [label="entropy = 0.0\nsamples = 4\nvalue = [0, 0, 4, 0, 0, 0]"] ;
259 -> 260 ;
261 [label="residual sugar <= 2.05\nentropy = 0.65\nsamples = 12\nvalue = [0, 0, 2, 10, 0, 0]"] ;
259 -> 261 ;
262 [label="fixed acidity <= 6.6\nentropy = 0.918\nsamples = 3\nvalue = [0, 0, 2, 1, 0, 0]"] ;
261 -> 262 ;
263 [label="entropy = 0.0\nsamples = 1\nvalue = [0, 0, 0, 1, 0, 0]"] ;
262 -> 263 ;
264 [label="entropy = 0.0\nsamples = 2\nvalue = [0, 0, 2, 0, 0, 0]"] ;
262 -> 264 ;
265 [label="entropy = 0.0\nsamples = 9\nvalue = [0, 0, 0, 9, 0, 0]"] ;
261 -> 265 ;
266 [label="entropy = 0.0\nsamples = 3\nvalue = [0, 0, 3, 0, 0, 0]"] ;
248 -> 266 ;
267 [label="entropy = 0.0\nsamples = 10\nvalue = [0, 0, 0, 10, 0, 0]"] ;
247 -> 267 ;
268 [label="entropy = 0.0\nsamples = 3\nvalue = [0, 0, 3, 0, 0, 0]"] ;
246 -> 268 ;
269 [label="free sulfur dioxide <= 11.5\nentropy = 1.573\nsamples = 13\nvalue = [0, 1, 7, 4, 1, 0]"] ;
245 -> 269 ;
270 [label="entropy = 0.0\nsamples = 3\nvalue = [0, 0, 0, 3, 0, 0]"] ;
269 -> 270 ;
271 [label="density <= 0.996\nentropy = 1.357\nsamples = 10\nvalue = [0, 1, 7, 1, 1, 0]"] ;
269 -> 271 ;
272 [label="pH <= 3.435\nentropy = 0.592\nsamples = 7\nvalue = [0, 1, 6, 0, 0, 0]"] ;
271 -> 272 ;
273 [label="free sulfur dioxide <= 31.5\nentropy = 1.0\nsamples = 2\nvalue = [0, 1, 1, 0, 0, 0]"] ;
272 -> 273 ;
274 [label="entropy = 0.0\nsamples = 1\nvalue = [0, 1, 0, 0, 0, 0]"] ;
273 -> 274 ;
275 [label="entropy = 0.0\nsamples = 1\nvalue = [0, 0, 1, 0, 0, 0]"] ;
273 -> 275 ;
276 [label="entropy = 0.0\nsamples = 5\nvalue = [0, 0, 5, 0, 0, 0]"] ;
272 -> 276 ;
277 [label="volatile acidity <= 0.575\nentropy = 1.585\nsamples = 3\nvalue = [0, 0, 1, 1, 1, 0]"] ;
271 -> 277 ;
278 [label="entropy = 0.0\nsamples = 1\nvalue = [0, 0, 0, 1, 0, 0]"] ;
277 -> 278 ;
279 [label="chlorides <= 0.079\nentropy = 1.0\nsamples = 2\nvalue = [0, 0, 1, 0, 1, 0]"] ;
277 -> 279 ;
280 [label="entropy = 0.0\nsamples = 1\nvalue = [0, 0, 1, 0, 0, 0]"] ;
279 -> 280 ;
281 [label="entropy = 0.0\nsamples = 1\nvalue = [0, 0, 0, 0, 1, 0]"] ;
279 -> 281 ;
282 [label="pH <= 3.45\nentropy = 1.586\nsamples = 117\nvalue = [1, 1, 28, 65, 21, 1]"] ;
210 -> 282 ;
283 [label="chlorides <= 0.122\nentropy = 1.533\nsamples = 93\nvalue = [1, 1, 13, 56, 21, 1]"] ;
282 -> 283 ;
284 [label="pH <= 3.035\nentropy = 1.316\nsamples = 85\nvalue = [0, 0, 9, 55, 20, 1]"] ;
283 -> 284 ;
285 [label="residual sugar <= 1.95\nentropy = 0.985\nsamples = 7\nvalue = [0, 0, 3, 0, 4, 0]"] ;
284 -> 285 ;
286 [label="entropy = 0.0\nsamples = 4\nvalue = [0, 0, 0, 0, 4, 0]"] ;
285 -> 286 ;
287 [label="entropy = 0.0\nsamples = 3\nvalue = [0, 0, 3, 0, 0, 0]"] ;
285 -> 287 ;
288 [label="sulphates <= 1.04\nentropy = 1.189\nsamples = 78\nvalue = [0, 0, 6, 55, 16, 1]"] ;
284 -> 288 ;
289 [label="residual sugar <= 5.35\nentropy = 1.077\nsamples = 75\nvalue = [0, 0, 5, 54, 16, 0]"] ;
288 -> 289 ;
290 [label="density <= 0.998\nentropy = 0.954\nsamples = 67\nvalue = [0, 0, 4, 52, 11, 0]"] ;
289 -> 290 ;
291 [label="pH <= 3.415\nentropy = 0.79\nsamples = 38\nvalue = [0, 0, 0, 29, 9, 0]"] ;
290 -> 291 ;
292 [label="citric acid <= 0.305\nentropy = 0.672\nsamples = 34\nvalue = [0, 0, 0, 28, 6, 0]"] ;
291 -> 292 ;
293 [label="entropy = 0.0\nsamples = 14\nvalue = [0, 0, 0, 14, 0, 0]"] ;
292 -> 293 ;
294 [label="citric acid <= 0.325\nentropy = 0.881\nsamples = 20\nvalue = [0, 0, 0, 14, 6, 0]"] ;
292 -> 294 ;
295 [label="residual sugar <= 2.65\nentropy = 0.811\nsamples = 4\nvalue = [0, 0, 0, 1, 3, 0]"] ;
294 -> 295 ;
296 [label="entropy = 0.0\nsamples = 3\nvalue = [0, 0, 0, 0, 3, 0]"] ;
295 -> 296 ;
297 [label="entropy = 0.0\nsamples = 1\nvalue = [0, 0, 0, 1, 0, 0]"] ;
295 -> 297 ;
298 [label="citric acid <= 0.465\nentropy = 0.696\nsamples = 16\nvalue = [0, 0, 0, 13, 3, 0]"] ;
294 -> 298 ;
299 [label="entropy = 0.0\nsamples = 10\nvalue = [0, 0, 0, 10, 0, 0]"] ;
298 -> 299 ;
300 [label="alcohol <= 10.25\nentropy = 1.0\nsamples = 6\nvalue = [0, 0, 0, 3, 3, 0]"] ;
298 -> 300 ;
301 [label="entropy = 0.0\nsamples = 3\nvalue = [0, 0, 0, 3, 0, 0]"] ;
300 -> 301 ;
302 [label="entropy = 0.0\nsamples = 3\nvalue = [0, 0, 0, 0, 3, 0]"] ;
300 -> 302 ;
303 [label="fixed acidity <= 9.45\nentropy = 0.811\nsamples = 4\nvalue = [0, 0, 0, 1, 3, 0]"] ;
291 -> 303 ;
304 [label="entropy = 0.0\nsamples = 3\nvalue = [0, 0, 0, 0, 3, 0]"] ;
303 -> 304 ;
305 [label="entropy = 0.0\nsamples = 1\nvalue = [0, 0, 0, 1, 0, 0]"] ;
303 -> 305 ;
306 [label="alcohol <= 10.45\nentropy = 0.926\nsamples = 29\nvalue = [0, 0, 4, 23, 2, 0]"] ;
290 -> 306 ;
307 [label="chlorides <= 0.072\nentropy = 0.753\nsamples = 27\nvalue = [0, 0, 2, 23, 2, 0]"] ;
306 -> 307 ;
308 [label="volatile acidity <= 0.345\nentropy = 1.0\nsamples = 4\nvalue = [0, 0, 2, 2, 0, 0]"] ;
307 -> 308 ;
309 [label="entropy = 0.0\nsamples = 2\nvalue = [0, 0, 0, 2, 0, 0]"] ;
308 -> 309 ;
310 [label="entropy = 0.0\nsamples = 2\nvalue = [0, 0, 2, 0, 0, 0]"] ;
308 -> 310 ;
311 [label="density <= 0.998\nentropy = 0.426\nsamples = 23\nvalue = [0, 0, 0, 21, 2, 0]"] ;
307 -> 311 ;
312 [label="entropy = 0.0\nsamples = 1\nvalue = [0, 0, 0, 0, 1, 0]"] ;
311 -> 312 ;
313 [label="citric acid <= 0.605\nentropy = 0.267\nsamples = 22\nvalue = [0, 0, 0, 21, 1, 0]"] ;
311 -> 313 ;
314 [label="entropy = 0.0\nsamples = 19\nvalue = [0, 0, 0, 19, 0, 0]"] ;
313 -> 314 ;
315 [label="chlorides <= 0.097\nentropy = 0.918\nsamples = 3\nvalue = [0, 0, 0, 2, 1, 0]"] ;
313 -> 315 ;
316 [label="entropy = 0.0\nsamples = 2\nvalue = [0, 0, 0, 2, 0, 0]"] ;
315 -> 316 ;
317 [label="entropy = 0.0\nsamples = 1\nvalue = [0, 0, 0, 0, 1, 0]"] ;
315 -> 317 ;
318 [label="entropy = 0.0\nsamples = 2\nvalue = [0, 0, 2, 0, 0, 0]"] ;
306 -> 318 ;
319 [label="fixed acidity <= 7.3\nentropy = 1.299\nsamples = 8\nvalue = [0, 0, 1, 2, 5, 0]"] ;
289 -> 319 ;
320 [label="volatile acidity <= 0.525\nentropy = 0.918\nsamples = 3\nvalue = [0, 0, 1, 2, 0, 0]"] ;
319 -> 320 ;
321 [label="entropy = 0.0\nsamples = 2\nvalue = [0, 0, 0, 2, 0, 0]"] ;
320 -> 321 ;
322 [label="entropy = 0.0\nsamples = 1\nvalue = [0, 0, 1, 0, 0, 0]"] ;
320 -> 322 ;
323 [label="entropy = 0.0\nsamples = 5\nvalue = [0, 0, 0, 0, 5, 0]"] ;
319 -> 323 ;
324 [label="density <= 0.996\nentropy = 1.585\nsamples = 3\nvalue = [0, 0, 1, 1, 0, 1]"] ;
288 -> 324 ;
325 [label="entropy = 0.0\nsamples = 1\nvalue = [0, 0, 0, 0, 0, 1]"] ;
324 -> 325 ;
326 [label="fixed acidity <= 8.5\nentropy = 1.0\nsamples = 2\nvalue = [0, 0, 1, 1, 0, 0]"] ;
324 -> 326 ;
327 [label="entropy = 0.0\nsamples = 1\nvalue = [0, 0, 1, 0, 0, 0]"] ;
326 -> 327 ;
328 [label="entropy = 0.0\nsamples = 1\nvalue = [0, 0, 0, 1, 0, 0]"] ;
326 -> 328 ;
329 [label="citric acid <= 0.25\nentropy = 2.0\nsamples = 8\nvalue = [1, 1, 4, 1, 1, 0]"] ;
283 -> 329 ;
330 [label="free sulfur dioxide <= 7.5\nentropy = 1.0\nsamples = 2\nvalue = [0, 0, 0, 1, 1, 0]"] ;
329 -> 330 ;
331 [label="entropy = 0.0\nsamples = 1\nvalue = [0, 0, 0, 0, 1, 0]"] ;
330 -> 331 ;
332 [label="entropy = 0.0\nsamples = 1\nvalue = [0, 0, 0, 1, 0, 0]"] ;
330 -> 332 ;
333 [label="residual sugar <= 1.65\nentropy = 1.252\nsamples = 6\nvalue = [1, 1, 4, 0, 0, 0]"] ;
329 -> 333 ;
334 [label="citric acid <= 0.43\nentropy = 1.0\nsamples = 2\nvalue = [1, 1, 0, 0, 0, 0]"] ;
333 -> 334 ;
335 [label="entropy = 0.0\nsamples = 1\nvalue = [1, 0, 0, 0, 0, 0]"] ;
334 -> 335 ;
336 [label="entropy = 0.0\nsamples = 1\nvalue = [0, 1, 0, 0, 0, 0]"] ;
334 -> 336 ;
337 [label="entropy = 0.0\nsamples = 4\nvalue = [0, 0, 4, 0, 0, 0]"] ;
333 -> 337 ;
338 [label="chlorides <= 0.079\nentropy = 0.954\nsamples = 24\nvalue = [0, 0, 15, 9, 0, 0]"] ;
282 -> 338 ;
339 [label="total sulfur dioxide <= 48.5\nentropy = 0.881\nsamples = 10\nvalue = [0, 0, 3, 7, 0, 0]"] ;
338 -> 339 ;
340 [label="entropy = 0.0\nsamples = 6\nvalue = [0, 0, 0, 6, 0, 0]"] ;
339 -> 340 ;
341 [label="fixed acidity <= 8.3\nentropy = 0.811\nsamples = 4\nvalue = [0, 0, 3, 1, 0, 0]"] ;
339 -> 341 ;
342 [label="entropy = 0.0\nsamples = 3\nvalue = [0, 0, 3, 0, 0, 0]"] ;
341 -> 342 ;
343 [label="entropy = 0.0\nsamples = 1\nvalue = [0, 0, 0, 1, 0, 0]"] ;
341 -> 343 ;
344 [label="free sulfur dioxide <= 7.0\nentropy = 0.592\nsamples = 14\nvalue = [0, 0, 12, 2, 0, 0]"] ;
338 -> 344 ;
345 [label="entropy = 0.0\nsamples = 2\nvalue = [0, 0, 0, 2, 0, 0]"] ;
344 -> 345 ;
346 [label="entropy = 0.0\nsamples = 12\nvalue = [0, 0, 12, 0, 0, 0]"] ;
344 -> 346 ;
347 [label="fixed acidity <= 5.7\nentropy = 0.745\nsamples = 37\nvalue = [0, 1, 31, 5, 0, 0]"] ;
209 -> 347 ;
348 [label="free sulfur dioxide <= 32.0\nentropy = 1.0\nsamples = 2\nvalue = [0, 1, 0, 1, 0, 0]"] ;
347 -> 348 ;
349 [label="entropy = 0.0\nsamples = 1\nvalue = [0, 0, 0, 1, 0, 0]"] ;
348 -> 349 ;
350 [label="entropy = 0.0\nsamples = 1\nvalue = [0, 1, 0, 0, 0, 0]"] ;
348 -> 350 ;
351 [label="pH <= 2.985\nentropy = 0.513\nsamples = 35\nvalue = [0, 0, 31, 4, 0, 0]"] ;
347 -> 351 ;
352 [label="entropy = 0.0\nsamples = 2\nvalue = [0, 0, 0, 2, 0, 0]"] ;
351 -> 352 ;
353 [label="total sulfur dioxide <= 150.5\nentropy = 0.33\nsamples = 33\nvalue = [0, 0, 31, 2, 0, 0]"] ;
351 -> 353 ;
354 [label="citric acid <= 0.425\nentropy = 0.201\nsamples = 32\nvalue = [0, 0, 31, 1, 0, 0]"] ;
353 -> 354 ;
355 [label="entropy = 0.0\nsamples = 30\nvalue = [0, 0, 30, 0, 0, 0]"] ;
354 -> 355 ;
356 [label="volatile acidity <= 1.022\nentropy = 1.0\nsamples = 2\nvalue = [0, 0, 1, 1, 0, 0]"] ;
354 -> 356 ;
357 [label="entropy = 0.0\nsamples = 1\nvalue = [0, 0, 0, 1, 0, 0]"] ;
356 -> 357 ;
358 [label="entropy = 0.0\nsamples = 1\nvalue = [0, 0, 1, 0, 0, 0]"] ;
356 -> 358 ;
359 [label="entropy = 0.0\nsamples = 1\nvalue = [0, 0, 0, 1, 0, 0]"] ;
353 -> 359 ;
360 [label="volatile acidity <= 0.445\nentropy = 1.738\nsamples = 495\nvalue = [1, 15, 83, 255, 128, 13]"] ;
0 -> 360 [labeldistance=2.5, labelangle=-45, headlabel="False"] ;
361 [label="alcohol <= 10.75\nentropy = 1.577\nsamples = 241\nvalue = [0, 2, 22, 113, 96, 8]"] ;
360 -> 361 ;
362 [label="sulphates <= 0.8\nentropy = 1.4\nsamples = 15\nvalue = [0, 0, 8, 5, 2, 0]"] ;
361 -> 362 ;
363 [label="entropy = 0.0\nsamples = 6\nvalue = [0, 0, 6, 0, 0, 0]"] ;
362 -> 363 ;
364 [label="fixed acidity <= 6.4\nentropy = 1.436\nsamples = 9\nvalue = [0, 0, 2, 5, 2, 0]"] ;
362 -> 364 ;
365 [label="entropy = 0.0\nsamples = 2\nvalue = [0, 0, 2, 0, 0, 0]"] ;
364 -> 365 ;
366 [label="total sulfur dioxide <= 46.5\nentropy = 0.863\nsamples = 7\nvalue = [0, 0, 0, 5, 2, 0]"] ;
364 -> 366 ;
367 [label="entropy = 0.0\nsamples = 4\nvalue = [0, 0, 0, 4, 0, 0]"] ;
366 -> 367 ;
368 [label="sulphates <= 1.09\nentropy = 0.918\nsamples = 3\nvalue = [0, 0, 0, 1, 2, 0]"] ;
366 -> 368 ;
369 [label="entropy = 0.0\nsamples = 2\nvalue = [0, 0, 0, 0, 2, 0]"] ;
368 -> 369 ;
370 [label="entropy = 0.0\nsamples = 1\nvalue = [0, 0, 0, 1, 0, 0]"] ;
368 -> 370 ;
371 [label="chlorides <= 0.079\nentropy = 1.515\nsamples = 226\nvalue = [0, 2, 14, 108, 94, 8]"] ;
361 -> 371 ;
372 [label="sulphates <= 0.705\nentropy = 1.506\nsamples = 150\nvalue = [0, 2, 5, 63, 72, 8]"] ;
371 -> 372 ;
373 [label="total sulfur dioxide <= 10.5\nentropy = 1.699\nsamples = 65\nvalue = [0, 2, 4, 34, 20, 5]"] ;
372 -> 373 ;
374 [label="chlorides <= 0.051\nentropy = 0.773\nsamples = 13\nvalue = [0, 1, 0, 1, 11, 0]"] ;
373 -> 374 ;
375 [label="alcohol <= 11.4\nentropy = 1.585\nsamples = 3\nvalue = [0, 1, 0, 1, 1, 0]"] ;
374 -> 375 ;
376 [label="entropy = 0.0\nsamples = 1\nvalue = [0, 0, 0, 0, 1, 0]"] ;
375 -> 376 ;
377 [label="residual sugar <= 3.85\nentropy = 1.0\nsamples = 2\nvalue = [0, 1, 0, 1, 0, 0]"] ;
375 -> 377 ;
378 [label="entropy = 0.0\nsamples = 1\nvalue = [0, 0, 0, 1, 0, 0]"] ;
377 -> 378 ;
379 [label="entropy = 0.0\nsamples = 1\nvalue = [0, 1, 0, 0, 0, 0]"] ;
377 -> 379 ;
380 [label="entropy = 0.0\nsamples = 10\nvalue = [0, 0, 0, 0, 10, 0]"] ;
374 -> 380 ;
381 [label="sulphates <= 0.64\nentropy = 1.573\nsamples = 52\nvalue = [0, 1, 4, 33, 9, 5]"] ;
373 -> 381 ;
382 [label="residual sugar <= 3.45\nentropy = 1.284\nsamples = 35\nvalue = [0, 1, 2, 23, 9, 0]"] ;
381 -> 382 ;
383 [label="volatile acidity <= 0.285\nentropy = 0.871\nsamples = 27\nvalue = [0, 0, 2, 22, 3, 0]"] ;
382 -> 383 ;
384 [label="alcohol <= 11.8\nentropy = 0.845\nsamples = 11\nvalue = [0, 0, 0, 8, 3, 0]"] ;
383 -> 384 ;
385 [label="entropy = 0.0\nsamples = 2\nvalue = [0, 0, 0, 0, 2, 0]"] ;
384 -> 385 ;
386 [label="total sulfur dioxide <= 14.5\nentropy = 0.503\nsamples = 9\nvalue = [0, 0, 0, 8, 1, 0]"] ;
384 -> 386 ;
387 [label="entropy = 0.0\nsamples = 1\nvalue = [0, 0, 0, 0, 1, 0]"] ;
386 -> 387 ;
388 [label="entropy = 0.0\nsamples = 8\nvalue = [0, 0, 0, 8, 0, 0]"] ;
386 -> 388 ;
389 [label="pH <= 3.2\nentropy = 0.544\nsamples = 16\nvalue = [0, 0, 2, 14, 0, 0]"] ;
383 -> 389 ;
390 [label="alcohol <= 10.95\nentropy = 0.971\nsamples = 5\nvalue = [0, 0, 2, 3, 0, 0]"] ;
389 -> 390 ;
391 [label="entropy = 0.0\nsamples = 2\nvalue = [0, 0, 0, 2, 0, 0]"] ;
390 -> 391 ;
392 [label="citric acid <= 0.485\nentropy = 0.918\nsamples = 3\nvalue = [0, 0, 2, 1, 0, 0]"] ;
390 -> 392 ;
393 [label="entropy = 0.0\nsamples = 2\nvalue = [0, 0, 2, 0, 0, 0]"] ;
392 -> 393 ;
394 [label="entropy = 0.0\nsamples = 1\nvalue = [0, 0, 0, 1, 0, 0]"] ;
392 -> 394 ;
395 [label="entropy = 0.0\nsamples = 11\nvalue = [0, 0, 0, 11, 0, 0]"] ;
389 -> 395 ;
396 [label="fixed acidity <= 6.85\nentropy = 1.061\nsamples = 8\nvalue = [0, 1, 0, 1, 6, 0]"] ;
382 -> 396 ;
397 [label="total sulfur dioxide <= 130.5\nentropy = 1.0\nsamples = 2\nvalue = [0, 1, 0, 1, 0, 0]"] ;
396 -> 397 ;
398 [label="entropy = 0.0\nsamples = 1\nvalue = [0, 1, 0, 0, 0, 0]"] ;
397 -> 398 ;
399 [label="entropy = 0.0\nsamples = 1\nvalue = [0, 0, 0, 1, 0, 0]"] ;
397 -> 399 ;
400 [label="entropy = 0.0\nsamples = 6\nvalue = [0, 0, 0, 0, 6, 0]"] ;
396 -> 400 ;
401 [label="chlorides <= 0.068\nentropy = 1.333\nsamples = 17\nvalue = [0, 0, 2, 10, 0, 5]"] ;
381 -> 401 ;
402 [label="volatile acidity <= 0.345\nentropy = 0.764\nsamples = 9\nvalue = [0, 0, 2, 7, 0, 0]"] ;
401 -> 402 ;
403 [label="sulphates <= 0.675\nentropy = 0.918\nsamples = 3\nvalue = [0, 0, 2, 1, 0, 0]"] ;
402 -> 403 ;
404 [label="entropy = 0.0\nsamples = 1\nvalue = [0, 0, 0, 1, 0, 0]"] ;
403 -> 404 ;
405 [label="entropy = 0.0\nsamples = 2\nvalue = [0, 0, 2, 0, 0, 0]"] ;
403 -> 405 ;
406 [label="entropy = 0.0\nsamples = 6\nvalue = [0, 0, 0, 6, 0, 0]"] ;
402 -> 406 ;
407 [label="chlorides <= 0.071\nentropy = 0.954\nsamples = 8\nvalue = [0, 0, 0, 3, 0, 5]"] ;
401 -> 407 ;
408 [label="entropy = 0.0\nsamples = 4\nvalue = [0, 0, 0, 0, 0, 4]"] ;
407 -> 408 ;
409 [label="residual sugar <= 1.95\nentropy = 0.811\nsamples = 4\nvalue = [0, 0, 0, 3, 0, 1]"] ;
407 -> 409 ;
410 [label="entropy = 0.0\nsamples = 1\nvalue = [0, 0, 0, 0, 0, 1]"] ;
409 -> 410 ;
411 [label="entropy = 0.0\nsamples = 3\nvalue = [0, 0, 0, 3, 0, 0]"] ;
409 -> 411 ;
412 [label="total sulfur dioxide <= 45.5\nentropy = 1.209\nsamples = 85\nvalue = [0, 0, 1, 29, 52, 3]"] ;
372 -> 412 ;
413 [label="density <= 0.996\nentropy = 1.058\nsamples = 62\nvalue = [0, 0, 0, 15, 44, 3]"] ;
412 -> 413 ;
414 [label="free sulfur dioxide <= 3.5\nentropy = 0.571\nsamples = 38\nvalue = [0, 0, 0, 3, 34, 1]"] ;
413 -> 414 ;
415 [label="alcohol <= 11.15\nentropy = 1.0\nsamples = 4\nvalue = [0, 0, 0, 2, 2, 0]"] ;
414 -> 415 ;
416 [label="entropy = 0.0\nsamples = 2\nvalue = [0, 0, 0, 0, 2, 0]"] ;
415 -> 416 ;
417 [label="entropy = 0.0\nsamples = 2\nvalue = [0, 0, 0, 2, 0, 0]"] ;
415 -> 417 ;
418 [label="pH <= 3.125\nentropy = 0.382\nsamples = 34\nvalue = [0, 0, 0, 1, 32, 1]"] ;
414 -> 418 ;
419 [label="entropy = 0.0\nsamples = 1\nvalue = [0, 0, 0, 1, 0, 0]"] ;
418 -> 419 ;
420 [label="citric acid <= 0.315\nentropy = 0.196\nsamples = 33\nvalue = [0, 0, 0, 0, 32, 1]"] ;
418 -> 420 ;
421 [label="citric acid <= 0.305\nentropy = 0.811\nsamples = 4\nvalue = [0, 0, 0, 0, 3, 1]"] ;
420 -> 421 ;
422 [label="entropy = 0.0\nsamples = 3\nvalue = [0, 0, 0, 0, 3, 0]"] ;
421 -> 422 ;
423 [label="entropy = 0.0\nsamples = 1\nvalue = [0, 0, 0, 0, 0, 1]"] ;
421 -> 423 ;
424 [label="entropy = 0.0\nsamples = 29\nvalue = [0, 0, 0, 0, 29, 0]"] ;
420 -> 424 ;
425 [label="alcohol <= 12.45\nentropy = 1.325\nsamples = 24\nvalue = [0, 0, 0, 12, 10, 2]"] ;
413 -> 425 ;
426 [label="fixed acidity <= 8.8\nentropy = 0.994\nsamples = 22\nvalue = [0, 0, 0, 12, 10, 0]"] ;
425 -> 426 ;
427 [label="entropy = 0.0\nsamples = 4\nvalue = [0, 0, 0, 4, 0, 0]"] ;
426 -> 427 ;
428 [label="total sulfur dioxide <= 17.0\nentropy = 0.991\nsamples = 18\nvalue = [0, 0, 0, 8, 10, 0]"] ;
426 -> 428 ;
429 [label="entropy = 0.0\nsamples = 3\nvalue = [0, 0, 0, 3, 0, 0]"] ;
428 -> 429 ;
430 [label="fixed acidity <= 10.25\nentropy = 0.918\nsamples = 15\nvalue = [0, 0, 0, 5, 10, 0]"] ;
428 -> 430 ;
431 [label="entropy = 0.0\nsamples = 5\nvalue = [0, 0, 0, 0, 5, 0]"] ;
430 -> 431 ;
432 [label="volatile acidity <= 0.305\nentropy = 1.0\nsamples = 10\nvalue = [0, 0, 0, 5, 5, 0]"] ;
430 -> 432 ;
433 [label="total sulfur dioxide <= 20.5\nentropy = 0.65\nsamples = 6\nvalue = [0, 0, 0, 1, 5, 0]"] ;
432 -> 433 ;
434 [label="entropy = 0.0\nsamples = 1\nvalue = [0, 0, 0, 1, 0, 0]"] ;
433 -> 434 ;
435 [label="entropy = 0.0\nsamples = 5\nvalue = [0, 0, 0, 0, 5, 0]"] ;
433 -> 435 ;
436 [label="entropy = 0.0\nsamples = 4\nvalue = [0, 0, 0, 4, 0, 0]"] ;
432 -> 436 ;
437 [label="entropy = 0.0\nsamples = 2\nvalue = [0, 0, 0, 0, 0, 2]"] ;
425 -> 437 ;
438 [label="sulphates <= 0.865\nentropy = 1.163\nsamples = 23\nvalue = [0, 0, 1, 14, 8, 0]"] ;
412 -> 438 ;
439 [label="fixed acidity <= 9.05\nentropy = 0.881\nsamples = 20\nvalue = [0, 0, 0, 14, 6, 0]"] ;
438 -> 439 ;
440 [label="total sulfur dioxide <= 82.5\nentropy = 0.672\nsamples = 17\nvalue = [0, 0, 0, 14, 3, 0]"] ;
439 -> 440 ;
441 [label="total sulfur dioxide <= 47.5\nentropy = 0.353\nsamples = 15\nvalue = [0, 0, 0, 14, 1, 0]"] ;
440 -> 441 ;
442 [label="pH <= 3.335\nentropy = 1.0\nsamples = 2\nvalue = [0, 0, 0, 1, 1, 0]"] ;
441 -> 442 ;
443 [label="entropy = 0.0\nsamples = 1\nvalue = [0, 0, 0, 1, 0, 0]"] ;
442 -> 443 ;
444 [label="entropy = 0.0\nsamples = 1\nvalue = [0, 0, 0, 0, 1, 0]"] ;
442 -> 444 ;
445 [label="entropy = 0.0\nsamples = 13\nvalue = [0, 0, 0, 13, 0, 0]"] ;
441 -> 445 ;
446 [label="entropy = 0.0\nsamples = 2\nvalue = [0, 0, 0, 0, 2, 0]"] ;
440 -> 446 ;
447 [label="entropy = 0.0\nsamples = 3\nvalue = [0, 0, 0, 0, 3, 0]"] ;
439 -> 447 ;
448 [label="chlorides <= 0.057\nentropy = 0.918\nsamples = 3\nvalue = [0, 0, 1, 0, 2, 0]"] ;
438 -> 448 ;
449 [label="entropy = 0.0\nsamples = 1\nvalue = [0, 0, 1, 0, 0, 0]"] ;
448 -> 449 ;
450 [label="entropy = 0.0\nsamples = 2\nvalue = [0, 0, 0, 0, 2, 0]"] ;
448 -> 450 ;
451 [label="total sulfur dioxide <= 67.5\nentropy = 1.33\nsamples = 76\nvalue = [0, 0, 9, 45, 22, 0]"] ;
371 -> 451 ;
452 [label="alcohol <= 11.95\nentropy = 1.197\nsamples = 68\nvalue = [0, 0, 4, 42, 22, 0]"] ;
451 -> 452 ;
453 [label="residual sugar <= 2.25\nentropy = 1.136\nsamples = 47\nvalue = [0, 0, 4, 33, 10, 0]"] ;
452 -> 453 ;
454 [label="alcohol <= 10.85\nentropy = 0.267\nsamples = 22\nvalue = [0, 0, 1, 21, 0, 0]"] ;
453 -> 454 ;
455 [label="entropy = 0.0\nsamples = 1\nvalue = [0, 0, 1, 0, 0, 0]"] ;
454 -> 455 ;
456 [label="entropy = 0.0\nsamples = 21\nvalue = [0, 0, 0, 21, 0, 0]"] ;
454 -> 456 ;
457 [label="sulphates <= 0.62\nentropy = 1.404\nsamples = 25\nvalue = [0, 0, 3, 12, 10, 0]"] ;
453 -> 457 ;
458 [label="chlorides <= 0.09\nentropy = 1.241\nsamples = 11\nvalue = [0, 0, 3, 7, 1, 0]"] ;
457 -> 458 ;
459 [label="pH <= 3.31\nentropy = 0.811\nsamples = 4\nvalue = [0, 0, 3, 1, 0, 0]"] ;
458 -> 459 ;
460 [label="entropy = 0.0\nsamples = 3\nvalue = [0, 0, 3, 0, 0, 0]"] ;
459 -> 460 ;
461 [label="entropy = 0.0\nsamples = 1\nvalue = [0, 0, 0, 1, 0, 0]"] ;
459 -> 461 ;
462 [label="density <= 0.996\nentropy = 0.592\nsamples = 7\nvalue = [0, 0, 0, 6, 1, 0]"] ;
458 -> 462 ;
463 [label="entropy = 0.0\nsamples = 1\nvalue = [0, 0, 0, 0, 1, 0]"] ;
462 -> 463 ;
464 [label="entropy = 0.0\nsamples = 6\nvalue = [0, 0, 0, 6, 0, 0]"] ;
462 -> 464 ;
465 [label="residual sugar <= 3.2\nentropy = 0.94\nsamples = 14\nvalue = [0, 0, 0, 5, 9, 0]"] ;
457 -> 465 ;
466 [label="citric acid <= 0.41\nentropy = 0.684\nsamples = 11\nvalue = [0, 0, 0, 2, 9, 0]"] ;
465 -> 466 ;
467 [label="entropy = 0.0\nsamples = 2\nvalue = [0, 0, 0, 2, 0, 0]"] ;
466 -> 467 ;
468 [label="entropy = 0.0\nsamples = 9\nvalue = [0, 0, 0, 0, 9, 0]"] ;
466 -> 468 ;
469 [label="entropy = 0.0\nsamples = 3\nvalue = [0, 0, 0, 3, 0, 0]"] ;
465 -> 469 ;
470 [label="chlorides <= 0.112\nentropy = 0.985\nsamples = 21\nvalue = [0, 0, 0, 9, 12, 0]"] ;
452 -> 470 ;
471 [label="sulphates <= 0.57\nentropy = 0.75\nsamples = 14\nvalue = [0, 0, 0, 3, 11, 0]"] ;
470 -> 471 ;
472 [label="volatile acidity <= 0.295\nentropy = 0.811\nsamples = 4\nvalue = [0, 0, 0, 3, 1, 0]"] ;
471 -> 472 ;
473 [label="entropy = 0.0\nsamples = 1\nvalue = [0, 0, 0, 0, 1, 0]"] ;
472 -> 473 ;
474 [label="entropy = 0.0\nsamples = 3\nvalue = [0, 0, 0, 3, 0, 0]"] ;
472 -> 474 ;
475 [label="entropy = 0.0\nsamples = 10\nvalue = [0, 0, 0, 0, 10, 0]"] ;
471 -> 475 ;
476 [label="residual sugar <= 2.15\nentropy = 0.592\nsamples = 7\nvalue = [0, 0, 0, 6, 1, 0]"] ;
470 -> 476 ;
477 [label="entropy = 0.0\nsamples = 1\nvalue = [0, 0, 0, 0, 1, 0]"] ;
476 -> 477 ;
478 [label="entropy = 0.0\nsamples = 6\nvalue = [0, 0, 0, 6, 0, 0]"] ;
476 -> 478 ;
479 [label="density <= 0.996\nentropy = 0.954\nsamples = 8\nvalue = [0, 0, 5, 3, 0, 0]"] ;
451 -> 479 ;
480 [label="residual sugar <= 2.0\nentropy = 0.811\nsamples = 4\nvalue = [0, 0, 1, 3, 0, 0]"] ;
479 -> 480 ;
481 [label="entropy = 0.0\nsamples = 1\nvalue = [0, 0, 1, 0, 0, 0]"] ;
480 -> 481 ;
482 [label="entropy = 0.0\nsamples = 3\nvalue = [0, 0, 0, 3, 0, 0]"] ;
480 -> 482 ;
483 [label="entropy = 0.0\nsamples = 4\nvalue = [0, 0, 4, 0, 0, 0]"] ;
479 -> 483 ;
484 [label="sulphates <= 0.585\nentropy = 1.702\nsamples = 254\nvalue = [1, 13, 61, 142, 32, 5]"] ;
360 -> 484 ;
485 [label="citric acid <= 0.035\nentropy = 1.653\nsamples = 85\nvalue = [1, 8, 37, 35, 4, 0]"] ;
484 -> 485 ;
486 [label="density <= 0.994\nentropy = 1.906\nsamples = 40\nvalue = [1, 6, 11, 18, 4, 0]"] ;
485 -> 486 ;
487 [label="residual sugar <= 2.35\nentropy = 0.65\nsamples = 12\nvalue = [0, 0, 2, 10, 0, 0]"] ;
486 -> 487 ;
488 [label="entropy = 0.0\nsamples = 10\nvalue = [0, 0, 0, 10, 0, 0]"] ;
487 -> 488 ;
489 [label="entropy = 0.0\nsamples = 2\nvalue = [0, 0, 2, 0, 0, 0]"] ;
487 -> 489 ;
490 [label="sulphates <= 0.535\nentropy = 2.092\nsamples = 28\nvalue = [1, 6, 9, 8, 4, 0]"] ;
486 -> 490 ;
491 [label="citric acid <= 0.005\nentropy = 1.491\nsamples = 11\nvalue = [1, 1, 7, 2, 0, 0]"] ;
490 -> 491 ;
492 [label="sulphates <= 0.44\nentropy = 0.592\nsamples = 7\nvalue = [1, 0, 6, 0, 0, 0]"] ;
491 -> 492 ;
493 [label="entropy = 0.0\nsamples = 1\nvalue = [1, 0, 0, 0, 0, 0]"] ;
492 -> 493 ;
494 [label="entropy = 0.0\nsamples = 6\nvalue = [0, 0, 6, 0, 0, 0]"] ;
492 -> 494 ;
495 [label="residual sugar <= 4.0\nentropy = 1.5\nsamples = 4\nvalue = [0, 1, 1, 2, 0, 0]"] ;
491 -> 495 ;
496 [label="entropy = 0.0\nsamples = 2\nvalue = [0, 0, 0, 2, 0, 0]"] ;
495 -> 496 ;
497 [label="alcohol <= 11.7\nentropy = 1.0\nsamples = 2\nvalue = [0, 1, 1, 0, 0, 0]"] ;
495 -> 497 ;
498 [label="entropy = 0.0\nsamples = 1\nvalue = [0, 1, 0, 0, 0, 0]"] ;
497 -> 498 ;
499 [label="entropy = 0.0\nsamples = 1\nvalue = [0, 0, 1, 0, 0, 0]"] ;
497 -> 499 ;
500 [label="alcohol <= 10.85\nentropy = 1.904\nsamples = 17\nvalue = [0, 5, 2, 6, 4, 0]"] ;
490 -> 500 ;
501 [label="total sulfur dioxide <= 26.5\nentropy = 0.918\nsamples = 6\nvalue = [0, 0, 2, 4, 0, 0]"] ;
500 -> 501 ;
502 [label="entropy = 0.0\nsamples = 2\nvalue = [0, 0, 2, 0, 0, 0]"] ;
501 -> 502 ;
503 [label="entropy = 0.0\nsamples = 4\nvalue = [0, 0, 0, 4, 0, 0]"] ;
501 -> 503 ;
504 [label="total sulfur dioxide <= 12.0\nentropy = 1.495\nsamples = 11\nvalue = [0, 5, 0, 2, 4, 0]"] ;
500 -> 504 ;
505 [label="entropy = 0.0\nsamples = 2\nvalue = [0, 0, 0, 2, 0, 0]"] ;
504 -> 505 ;
506 [label="free sulfur dioxide <= 8.0\nentropy = 0.991\nsamples = 9\nvalue = [0, 5, 0, 0, 4, 0]"] ;
504 -> 506 ;
507 [label="entropy = 0.0\nsamples = 3\nvalue = [0, 3, 0, 0, 0, 0]"] ;
506 -> 507 ;
508 [label="fixed acidity <= 6.55\nentropy = 0.918\nsamples = 6\nvalue = [0, 2, 0, 0, 4, 0]"] ;
506 -> 508 ;
509 [label="entropy = 0.0\nsamples = 2\nvalue = [0, 2, 0, 0, 0, 0]"] ;
508 -> 509 ;
510 [label="entropy = 0.0\nsamples = 4\nvalue = [0, 0, 0, 0, 4, 0]"] ;
508 -> 510 ;
511 [label="pH <= 3.355\nentropy = 1.187\nsamples = 45\nvalue = [0, 2, 26, 17, 0, 0]"] ;
485 -> 511 ;
512 [label="pH <= 3.25\nentropy = 0.937\nsamples = 17\nvalue = [0, 0, 6, 11, 0, 0]"] ;
511 -> 512 ;
513 [label="chlorides <= 0.115\nentropy = 0.918\nsamples = 9\nvalue = [0, 0, 6, 3, 0, 0]"] ;
512 -> 513 ;
514 [label="fixed acidity <= 7.9\nentropy = 0.592\nsamples = 7\nvalue = [0, 0, 6, 1, 0, 0]"] ;
513 -> 514 ;
515 [label="entropy = 0.0\nsamples = 1\nvalue = [0, 0, 0, 1, 0, 0]"] ;
514 -> 515 ;
516 [label="entropy = 0.0\nsamples = 6\nvalue = [0, 0, 6, 0, 0, 0]"] ;
514 -> 516 ;
517 [label="entropy = 0.0\nsamples = 2\nvalue = [0, 0, 0, 2, 0, 0]"] ;
513 -> 517 ;
518 [label="entropy = 0.0\nsamples = 8\nvalue = [0, 0, 0, 8, 0, 0]"] ;
512 -> 518 ;
519 [label="free sulfur dioxide <= 15.5\nentropy = 1.095\nsamples = 28\nvalue = [0, 2, 20, 6, 0, 0]"] ;
511 -> 519 ;
520 [label="sulphates <= 0.565\nentropy = 0.84\nsamples = 23\nvalue = [0, 2, 19, 2, 0, 0]"] ;
519 -> 520 ;
521 [label="fixed acidity <= 5.35\nentropy = 0.523\nsamples = 17\nvalue = [0, 2, 15, 0, 0, 0]"] ;
520 -> 521 ;
522 [label="entropy = 0.0\nsamples = 1\nvalue = [0, 1, 0, 0, 0, 0]"] ;
521 -> 522 ;
523 [label="residual sugar <= 3.35\nentropy = 0.337\nsamples = 16\nvalue = [0, 1, 15, 0, 0, 0]"] ;
521 -> 523 ;
524 [label="entropy = 0.0\nsamples = 12\nvalue = [0, 0, 12, 0, 0, 0]"] ;
523 -> 524 ;
525 [label="chlorides <= 0.069\nentropy = 0.811\nsamples = 4\nvalue = [0, 1, 3, 0, 0, 0]"] ;
523 -> 525 ;
526 [label="entropy = 0.0\nsamples = 1\nvalue = [0, 1, 0, 0, 0, 0]"] ;
525 -> 526 ;
527 [label="entropy = 0.0\nsamples = 3\nvalue = [0, 0, 3, 0, 0, 0]"] ;
525 -> 527 ;
528 [label="free sulfur dioxide <= 6.5\nentropy = 0.918\nsamples = 6\nvalue = [0, 0, 4, 2, 0, 0]"] ;
520 -> 528 ;
529 [label="entropy = 0.0\nsamples = 4\nvalue = [0, 0, 4, 0, 0, 0]"] ;
528 -> 529 ;
530 [label="entropy = 0.0\nsamples = 2\nvalue = [0, 0, 0, 2, 0, 0]"] ;
528 -> 530 ;
531 [label="total sulfur dioxide <= 25.5\nentropy = 0.722\nsamples = 5\nvalue = [0, 0, 1, 4, 0, 0]"] ;
519 -> 531 ;
532 [label="entropy = 0.0\nsamples = 1\nvalue = [0, 0, 1, 0, 0, 0]"] ;
531 -> 532 ;
533 [label="entropy = 0.0\nsamples = 4\nvalue = [0, 0, 0, 4, 0, 0]"] ;
531 -> 533 ;
534 [label="alcohol <= 11.55\nentropy = 1.548\nsamples = 169\nvalue = [0, 5, 24, 107, 28, 5]"] ;
484 -> 534 ;
535 [label="volatile acidity <= 0.637\nentropy = 1.299\nsamples = 108\nvalue = [0, 5, 20, 75, 8, 0]"] ;
534 -> 535 ;
536 [label="pH <= 3.225\nentropy = 1.14\nsamples = 70\nvalue = [0, 2, 7, 53, 8, 0]"] ;
535 -> 536 ;
537 [label="total sulfur dioxide <= 30.0\nentropy = 0.9\nsamples = 19\nvalue = [0, 0, 6, 13, 0, 0]"] ;
536 -> 537 ;
538 [label="volatile acidity <= 0.46\nentropy = 0.863\nsamples = 7\nvalue = [0, 0, 5, 2, 0, 0]"] ;
537 -> 538 ;
539 [label="entropy = 0.0\nsamples = 2\nvalue = [0, 0, 0, 2, 0, 0]"] ;
538 -> 539 ;
540 [label="entropy = 0.0\nsamples = 5\nvalue = [0, 0, 5, 0, 0, 0]"] ;
538 -> 540 ;
541 [label="residual sugar <= 2.7\nentropy = 0.414\nsamples = 12\nvalue = [0, 0, 1, 11, 0, 0]"] ;
537 -> 541 ;
542 [label="entropy = 0.0\nsamples = 10\nvalue = [0, 0, 0, 10, 0, 0]"] ;
541 -> 542 ;
543 [label="sulphates <= 0.84\nentropy = 1.0\nsamples = 2\nvalue = [0, 0, 1, 1, 0, 0]"] ;
541 -> 543 ;
544 [label="entropy = 0.0\nsamples = 1\nvalue = [0, 0, 1, 0, 0, 0]"] ;
543 -> 544 ;
545 [label="entropy = 0.0\nsamples = 1\nvalue = [0, 0, 0, 1, 0, 0]"] ;
543 -> 545 ;
546 [label="fixed acidity <= 6.75\nentropy = 0.989\nsamples = 51\nvalue = [0, 2, 1, 40, 8, 0]"] ;
536 -> 546 ;
547 [label="free sulfur dioxide <= 15.0\nentropy = 0.834\nsamples = 17\nvalue = [0, 2, 1, 14, 0, 0]"] ;
546 -> 547 ;
548 [label="density <= 0.995\nentropy = 0.918\nsamples = 3\nvalue = [0, 2, 0, 1, 0, 0]"] ;
547 -> 548 ;
549 [label="entropy = 0.0\nsamples = 1\nvalue = [0, 0, 0, 1, 0, 0]"] ;
548 -> 549 ;
550 [label="entropy = 0.0\nsamples = 2\nvalue = [0, 2, 0, 0, 0, 0]"] ;
548 -> 550 ;
551 [label="chlorides <= 0.057\nentropy = 0.371\nsamples = 14\nvalue = [0, 0, 1, 13, 0, 0]"] ;
547 -> 551 ;
552 [label="entropy = 0.0\nsamples = 1\nvalue = [0, 0, 1, 0, 0, 0]"] ;
551 -> 552 ;
553 [label="entropy = 0.0\nsamples = 13\nvalue = [0, 0, 0, 13, 0, 0]"] ;
551 -> 553 ;
554 [label="alcohol <= 10.65\nentropy = 0.787\nsamples = 34\nvalue = [0, 0, 0, 26, 8, 0]"] ;
546 -> 554 ;
555 [label="entropy = 0.0\nsamples = 3\nvalue = [0, 0, 0, 0, 3, 0]"] ;
554 -> 555 ;
556 [label="total sulfur dioxide <= 34.0\nentropy = 0.637\nsamples = 31\nvalue = [0, 0, 0, 26, 5, 0]"] ;
554 -> 556 ;
557 [label="residual sugar <= 2.35\nentropy = 0.918\nsamples = 15\nvalue = [0, 0, 0, 10, 5, 0]"] ;
556 -> 557 ;
558 [label="entropy = 0.0\nsamples = 7\nvalue = [0, 0, 0, 7, 0, 0]"] ;
557 -> 558 ;
559 [label="free sulfur dioxide <= 8.0\nentropy = 0.954\nsamples = 8\nvalue = [0, 0, 0, 3, 5, 0]"] ;
557 -> 559 ;
560 [label="entropy = 0.0\nsamples = 3\nvalue = [0, 0, 0, 3, 0, 0]"] ;
559 -> 560 ;
561 [label="entropy = 0.0\nsamples = 5\nvalue = [0, 0, 0, 0, 5, 0]"] ;
559 -> 561 ;
562 [label="entropy = 0.0\nsamples = 16\nvalue = [0, 0, 0, 16, 0, 0]"] ;
556 -> 562 ;
563 [label="volatile acidity <= 0.905\nentropy = 1.275\nsamples = 38\nvalue = [0, 3, 13, 22, 0, 0]"] ;
535 -> 563 ;
564 [label="alcohol <= 11.25\nentropy = 0.928\nsamples = 32\nvalue = [0, 0, 11, 21, 0, 0]"] ;
563 -> 564 ;
565 [label="volatile acidity <= 0.657\nentropy = 1.0\nsamples = 22\nvalue = [0, 0, 11, 11, 0, 0]"] ;
564 -> 565 ;
566 [label="entropy = 0.0\nsamples = 7\nvalue = [0, 0, 7, 0, 0, 0]"] ;
565 -> 566 ;
567 [label="fixed acidity <= 7.45\nentropy = 0.837\nsamples = 15\nvalue = [0, 0, 4, 11, 0, 0]"] ;
565 -> 567 ;
568 [label="entropy = 0.0\nsamples = 7\nvalue = [0, 0, 0, 7, 0, 0]"] ;
567 -> 568 ;
569 [label="fixed acidity <= 7.85\nentropy = 1.0\nsamples = 8\nvalue = [0, 0, 4, 4, 0, 0]"] ;
567 -> 569 ;
570 [label="entropy = 0.0\nsamples = 3\nvalue = [0, 0, 3, 0, 0, 0]"] ;
569 -> 570 ;
571 [label="total sulfur dioxide <= 105.5\nentropy = 0.722\nsamples = 5\nvalue = [0, 0, 1, 4, 0, 0]"] ;
569 -> 571 ;
572 [label="entropy = 0.0\nsamples = 4\nvalue = [0, 0, 0, 4, 0, 0]"] ;
571 -> 572 ;
573 [label="entropy = 0.0\nsamples = 1\nvalue = [0, 0, 1, 0, 0, 0]"] ;
571 -> 573 ;
574 [label="entropy = 0.0\nsamples = 10\nvalue = [0, 0, 0, 10, 0, 0]"] ;
564 -> 574 ;
575 [label="pH <= 3.6\nentropy = 1.459\nsamples = 6\nvalue = [0, 3, 2, 1, 0, 0]"] ;
563 -> 575 ;
576 [label="entropy = 0.0\nsamples = 3\nvalue = [0, 3, 0, 0, 0, 0]"] ;
575 -> 576 ;
577 [label="fixed acidity <= 5.7\nentropy = 0.918\nsamples = 3\nvalue = [0, 0, 2, 1, 0, 0]"] ;
575 -> 577 ;
578 [label="entropy = 0.0\nsamples = 2\nvalue = [0, 0, 2, 0, 0, 0]"] ;
577 -> 578 ;
579 [label="entropy = 0.0\nsamples = 1\nvalue = [0, 0, 0, 1, 0, 0]"] ;
577 -> 579 ;
580 [label="alcohol <= 12.95\nentropy = 1.569\nsamples = 61\nvalue = [0, 0, 4, 32, 20, 5]"] ;
534 -> 580 ;
581 [label="pH <= 3.235\nentropy = 1.275\nsamples = 51\nvalue = [0, 0, 1, 30, 18, 2]"] ;
580 -> 581 ;
582 [label="sulphates <= 0.88\nentropy = 0.722\nsamples = 10\nvalue = [0, 0, 0, 2, 8, 0]"] ;
581 -> 582 ;
583 [label="entropy = 0.0\nsamples = 8\nvalue = [0, 0, 0, 0, 8, 0]"] ;
582 -> 583 ;
584 [label="entropy = 0.0\nsamples = 2\nvalue = [0, 0, 0, 2, 0, 0]"] ;
582 -> 584 ;
585 [label="citric acid <= 0.105\nentropy = 1.215\nsamples = 41\nvalue = [0, 0, 1, 28, 10, 2]"] ;
581 -> 585 ;
586 [label="total sulfur dioxide <= 27.5\nentropy = 1.634\nsamples = 18\nvalue = [0, 0, 1, 7, 8, 2]"] ;
585 -> 586 ;
587 [label="citric acid <= 0.085\nentropy = 0.65\nsamples = 6\nvalue = [0, 0, 1, 0, 5, 0]"] ;
586 -> 587 ;
588 [label="entropy = 0.0\nsamples = 5\nvalue = [0, 0, 0, 0, 5, 0]"] ;
587 -> 588 ;
589 [label="entropy = 0.0\nsamples = 1\nvalue = [0, 0, 1, 0, 0, 0]"] ;
587 -> 589 ;
590 [label="pH <= 3.55\nentropy = 1.384\nsamples = 12\nvalue = [0, 0, 0, 7, 3, 2]"] ;
586 -> 590 ;
